digraph Tree {
node [shape=box, style="filled, rounded", color="black", fontname="helvetica"] ;
edge [fontname="helvetica"] ;
0 [label=<exclamation &le; 0.5<br/>gini = 0.412<br/>samples = 5172<br/>value = [3672, 1500]<br/>class = Ham>, fillcolor="#f0b48a"] ;
1 [label=<meter &le; 0.5<br/>gini = 0.305<br/>samples = 3917<br/>value = [3182, 735]<br/>class = Ham>, fillcolor="#eb9e67"] ;
0 -> 1 [labeldistance=2.5, labelangle=45, headlabel="True"] ;
2 [label=<parenthesis &le; 0.5<br/>gini = 0.352<br/>samples = 3229<br/>value = [2494, 735]<br/>class = Ham>, fillcolor="#eda673"] ;
1 -> 2 ;
3 [label=<gini = 0.414<br/>samples = 2060<br/>value = [1456, 604]<br/>class = Ham>, fillcolor="#f0b58b"] ;
2 -> 3 ;
4 [label=<gini = 0.199<br/>samples = 1169<br/>value = [1038, 131]<br/>class = Ham>, fillcolor="#e89152"] ;
2 -> 4 ;
5 [label=<gini = 0.0<br/>samples = 688<br/>value = [688, 0]<br/>class = Ham>, fillcolor="#e58139"] ;
1 -> 5 ;
6 [label=<ampersand &le; 0.5<br/>gini = 0.476<br/>samples = 1255<br/>value = [490, 765]<br/>class = Spam>, fillcolor="#b8dcf6"] ;
0 -> 6 [labeldistance=2.5, labelangle=-45, headlabel="False"] ;
7 [label=<meter &le; 0.5<br/>gini = 0.44<br/>samples = 1100<br/>value = [359, 741]<br/>class = Spam>, fillcolor="#99ccf2"] ;
6 -> 7 ;
8 [label=<gini = 0.411<br/>samples = 1043<br/>value = [302, 741]<br/>class = Spam>, fillcolor="#8ac5f0"] ;
7 -> 8 ;
9 [label=<gini = 0.0<br/>samples = 57<br/>value = [57, 0]<br/>class = Ham>, fillcolor="#e58139"] ;
7 -> 9 ;
10 [label=<money &le; 0.5<br/>gini = 0.262<br/>samples = 155<br/>value = [131, 24]<br/>class = Ham>, fillcolor="#ea985d"] ;
6 -> 10 ;
11 [label=<gini = 0.206<br/>samples = 146<br/>value = [129, 17]<br/>class = Ham>, fillcolor="#e89253"] ;
10 -> 11 ;
12 [label=<gini = 0.346<br/>samples = 9<br/>value = [2, 7]<br/>class = Spam>, fillcolor="#72b9ec"] ;
10 -> 12 ;
}
